34 128
34 0.09931523 0.011610311 0.024400149 -0.1545916 -0.20837834 0.16049807 0.051931173 -0.18946303 0.24439254 -0.12551424 0.007595942 -0.06870879 -0.14688048 -0.016497994 0.07567041 0.06669986 0.065877505 -0.17801063 0.10446822 -0.12099387 -0.07707501 0.07283348 0.005829956 0.10495509 -0.058577295 0.002622882 0.02170967 0.27108452 -0.06166845 -0.060245566 0.117623314 0.09759007 -0.029093971 0.24130845 -0.071135655 0.12027453 -0.07115546 0.2439614 0.22526336 0.00835478 -0.08751556 0.01728897 -0.0069289394 0.18145315 -0.08297178 -0.18264124 -0.3097579 0.066055104 -0.078588076 -0.08070395 -0.082700364 -0.07652645 0.1035899 -0.015279146 0.15558964 -0.116936825 -0.27712363 -0.16282922 -0.00032007426 0.031021057 0.027157128 0.07018217 0.078492425 -0.06809922 0.07570372 -0.12327468 0.11984129 0.23749931 -0.10082427 0.178093 0.17008744 0.09505619 -0.1174999 -0.04914498 -0.13885911 -0.01526369 -0.009251127 -0.13770469 -0.029746966 0.12440556 -0.07380885 0.07337061 0.12147794 0.09852704 0.026012484 0.1747654 -0.014349946 0.16843131 0.034068663 0.11991819 -0.1604463 -0.06556905 0.093115546 0.08570489 -0.043011427 -0.01771403 -0.17236479 -0.103885435 -0.0872776 -0.009258627 -0.23486263 0.16768852 -0.042229887 -0.0034057489 -0.1143701 -0.21698754 -0.13141687 0.01182559 -0.21224199 0.03619377 0.10163636 0.024692772 0.14835162 -0.0024135185 -0.044061992 0.072749265 -0.00085072505 -0.02592972 -0.013483409 0.08621615 0.013637608 -0.07066918 0.044264354 0.095623836 0.056069333 0.11687449 0.118459985 -0.06389126
1 0.03454815 0.08434449 -0.23237397 -0.06771256 -0.091158316 0.19056922 0.029766085 -0.13655232 0.18696727 -0.04606019 -0.04683032 -0.11383037 -0.06264555 0.09696035 -0.16231582 0.1561364 0.12127034 0.05288926 -0.017445518 0.016760234 -0.05136925 0.14818022 0.07425908 0.028582172 -0.22511218 0.094997674 -0.026760079 0.29186076 -0.04099709 -0.12021534 -0.08922009 -0.03371758 -0.1909259 0.21032794 -0.09237671 0.07154352 -0.18655616 0.19307107 0.03813488 -0.051491898 -0.0808884 -0.038133413 0.07857651 0.1420615 -0.051883474 -0.24612364 -0.3199939 -0.10495429 -0.11262699 -0.055698536 0.0797617 -0.034002017 0.029396253 -0.053002972 0.12584144 -0.03806056 -0.18651515 -0.0758233 0.0050122635 0.0044243825 0.043804303 0.061365515 -0.11740342 0.009626636 0.061880868 -0.27892777 0.11055947 0.07335007 -0.1295466 0.18748091 0.12433793 -0.036810156 -0.19826685 -0.06640244 -0.16422313 0.20901072 -0.006621993 -0.060634933 -0.04627312 0.029899616 0.043778338 -0.026459364 0.14088519 0.09189592 -0.053255208 0.103095815 -0.05611814 0.18255754 -0.025993947 -0.020945497 -0.082767315 -0.104536206 0.078072965 0.06926635 0.121537484 -0.07432976 -0.12264959 -0.13929951 -0.076676756 0.06522279 -0.17732391 0.008723197 -0.043340124 -0.0025244218 -0.1062156 -0.2288787 -0.12209721 -0.12291546 -0.047985666 -0.1710284 0.10702007 0.039861705 0.1466675 -0.19949189 -0.1703036 0.034669917 0.04092345 -0.121100605 -0.09949104 0.06674828 0.014665297 0.009780637 0.034061126 -0.07681064 -0.00812009 -0.03258914 0.12437245 -0.17893173
33 0.0881651 0.012777884 -4.762842e-05 -0.14377417 -0.18782209 0.15203907 0.047768544 -0.17537478 0.2218041 -0.10827757 0.0051267706 -0.06671055 -0.13461699 -0.010913076 0.0553244 0.06696514 0.06692812 -0.146426 0.088665195 -0.09931242 -0.07243326 0.073603556 0.011047308 0.091455676 -0.066837296 0.008206329 0.02255104 0.25532508 -0.0536402 -0.0633966 0.09079863 0.08018702 -0.03804107 0.226778 -0.0690977 0.10924523 -0.0798297 0.2223413 0.19558638 0.0076810825 -0.07878656 0.010066744 -0.004512153 0.16509485 -0.07729324 -0.17995083 -0.28510618 0.048404124 -0.07251903 -0.075262085 -0.06522781 -0.07357713 0.08746014 -0.017774627 0.1478164 -0.10656009 -0.25059626 -0.15154207 -0.0011131308 0.02981158 0.028436888 0.06346891 0.058052465 -0.059020407 0.062878154 -0.11890345 0.106135465 0.20537314 -0.09452699 0.15944205 0.15272017 0.07906343 -0.11143118 -0.044877358 -0.12347142 4.3657492e-05 -0.01112765 -0.120797776 -0.027407566 0.10964446 -0.06236936 0.05861438 0.10932367 0.09233399 0.021091422 0.1575964 -0.013910325 0.151027 0.026315272 0.10041787 -0.13675751 -0.06464146 0.08600724 0.07657448 -0.029829005 -0.019490378 -0.1578095 -0.094014704 -0.07689727 -0.005592888 -0.21213731 0.14156201 -0.037073635 -0.0030293127 -0.10224491 -0.19734702 -0.115716964 0.0055132695 -0.17867145 0.025776211 0.097457595 0.02661465 0.1379634 -0.015695402 -0.050368402 0.0668932 0.005236177 -0.030790346 -0.019462628 0.07701903 0.015178961 -0.06334692 0.040998343 0.07737042 0.050372563 0.09982507 0.117398396 -0.07170352
3 0.06348921 0.04888761 -0.097466 -0.11366842 -0.1424399 0.16867228 0.04022457 -0.15966192 0.20415673 -0.08508787 -0.02310895 -0.08557855 -0.10119386 0.040544502 -0.04159642 0.10921744 0.096696675 -0.059571728 0.039853998 -0.047942527 -0.06742816 0.11430605 0.042942274 0.07066339 -0.14543156 0.045182064 -0.002081715 0.27844003 -0.055550057 -0.08407484 0.00797201 0.033981837 -0.11034935 0.22385965 -0.0768786 0.091499485 -0.12855218 0.21354094 0.13210487 -0.01683293 -0.08209774 -0.015441485 0.036671706 0.15721714 -0.067179054 -0.20929624 -0.30665392 -0.0215366 -0.09129777 -0.07139519 -0.00535608 -0.05169579 0.067104556 -0.032532502 0.14378676 -0.080916815 -0.22652638 -0.12267067 -0.0005845359 0.020342238 0.030385803 0.06528945 -0.018346727 -0.02342754 0.064762324 -0.18753928 0.11097511 0.14705025 -0.10728349 0.176674 0.13961503 0.02932482 -0.15304951 -0.051089033 -0.14838198 0.0905158 -0.0023126688 -0.09098863 -0.03219498 0.076795526 -0.013851155 0.02017297 0.12001752 0.08868924 -0.017907517 0.12637646 -0.03163658 0.16078515 0.004901049 0.04503098 -0.116625935 -0.08416632 0.07823016 0.077396296 0.033935234 -0.037878323 -0.13844156 -0.12021292 -0.0824427 0.020167151 -0.20491543 0.084765345 -0.040217247 -0.0018411767 -0.111960985 -0.21728832 -0.12101522 -0.05276902 -0.12454878 -0.062814645 0.0981337 0.03351744 0.13879487 -0.09851915 -0.09868626 0.049624268 0.021021152 -0.06943598 -0.058635138 0.07482061 0.008826336 -0.031240437 0.036968715 0.011714512 0.027191928 0.04515091 0.118861236 -0.121915035
2 0.041822396 0.06515654 -0.1601698 -0.08121795 -0.10268177 0.17309149 0.035765607 -0.13045336 0.18316713 -0.057130948 -0.035486784 -0.08576658 -0.076635964 0.07386471 -0.109167226 0.1304957 0.10893081 0.008114975 0.01244322 -0.01434329 -0.057020992 0.13032593 0.05581946 0.039091554 -0.18401717 0.07303938 -0.0072633335 0.2677616 -0.046999227 -0.09760227 -0.04142145 0.000832499 -0.14639027 0.20151639 -0.07871846 0.08054962 -0.14301299 0.19194564 0.076618634 -0.037547622 -0.081723064 -0.022735534 0.056183822 0.1413098 -0.05823523 -0.23003456 -0.31196046 -0.06536338 -0.092851706 -0.060940146 0.042428326 -0.04486228 0.049765687 -0.04457526 0.13034882 -0.05539309 -0.20235984 -0.09503246 0.009480227 0.013046939 0.03595385 0.06877427 -0.06913752 -0.006369706 0.06777436 -0.22868243 0.11247423 0.109266445 -0.11297184 0.1731743 0.123844124 -0.008150178 -0.16735767 -0.049940888 -0.1537959 0.15622671 -0.0021781698 -0.07219932 -0.036667492 0.045556355 0.022900473 -0.0102397725 0.12740746 0.07999295 -0.03518707 0.10307137 -0.042203847 0.16047081 -0.012935659 0.0063755023 -0.08703618 -0.09142225 0.076818585 0.063153125 0.08421639 -0.051197853 -0.122773975 -0.11918101 -0.0810429 0.039734636 -0.18302234 0.03839564 -0.041404504 -0.0011023405 -0.10910594 -0.2197495 -0.11333017 -0.08117422 -0.08418376 -0.12838322 0.10584286 0.03114402 0.14516923 -0.15139037 -0.13264693 0.039884448 0.033382505 -0.0982909 -0.07817718 0.06560008 0.012907475 -0.006700329 0.028462583 -0.037413865 0.0032286055 -0.0001577914 0.12444628 -0.15235533
4 0.042521413 0.06191989 -0.14875957 -0.08287255 -0.11035405 0.17546734 0.030224895 -0.13247612 0.19016857 -0.05731113 -0.037659325 -0.08870352 -0.08678954 0.07361426 -0.097299345 0.12508257 0.105586804 -0.0073582632 0.017462118 -0.019528393 -0.05912201 0.12452351 0.049947377 0.03993346 -0.18133123 0.06886677 -0.009680103 0.26965103 -0.050221436 -0.1027991 -0.040606994 0.006702843 -0.14240877 0.21265359 -0.07900341 0.0766236 -0.14457074 0.1977981 0.08844594 -0.029509084 -0.08609475 -0.029269738 0.051196225 0.15063417 -0.061375562 -0.22925039 -0.31701043 -0.051660463 -0.0929021 -0.06473945 0.030232461 -0.050964132 0.053895008 -0.046424925 0.14272703 -0.06066881 -0.21135218 -0.10708263 0.0068272394 0.014739533 0.038925394 0.07187675 -0.06264204 -0.008695622 0.07262998 -0.23202504 0.11723663 0.11925447 -0.11668958 0.1865485 0.13129655 -0.008076007 -0.17514558 -0.052862838 -0.15640707 0.14579159 -0.010454876 -0.076354615 -0.030556783 0.05465372 0.018274486 0.0013106617 0.13184495 0.084751144 -0.03335783 0.10996711 -0.04435412 0.1632499 -0.013916513 0.011286564 -0.09501208 -0.0903584 0.08078207 0.069824785 0.07748408 -0.051185913 -0.13284953 -0.13088821 -0.08658241 0.036566306 -0.19056861 0.047221743 -0.03934671 0.00017349292 -0.11758716 -0.22867516 -0.123254895 -0.077509396 -0.096402586 -0.12140235 0.106520295 0.03530588 0.14805782 -0.14620307 -0.13058701 0.04585151 0.031800713 -0.090842314 -0.083202265 0.071661875 0.017460398 -0.018304277 0.028431492 -0.022863097 0.005244162 0.017750463 0.12888098 -0.14816092
32 0.07157704 0.030514441 -0.05548984 -0.124845356 -0.15672375 0.15361297 0.03791902 -0.16311362 0.21250811 -0.09353568 -0.005669881 -0.073321305 -0.116093054 0.020461366 -0.0044637853 0.088792376 0.08567444 -0.09780656 0.06235271 -0.07141593 -0.06832671 0.09644929 0.020694409 0.07417639 -0.10762831 0.027350413 0.01254079 0.25765106 -0.05203563 -0.07539161 0.04189778 0.054491967 -0.07905625 0.22142647 -0.07081181 0.10529427 -0.10706491 0.21420747 0.15226264 -0.007141503 -0.0838234 -0.0042985952 0.014992001 0.15825011 -0.06836487 -0.19383962 -0.30352503 0.013798985 -0.08373804 -0.07139637 -0.032060433 -0.062377073 0.0723888 -0.025999472 0.14425795 -0.09166705 -0.23862144 -0.1387337 0.00027534596 0.023998693 0.026575558 0.06075138 0.010425693 -0.04009631 0.06325412 -0.15427886 0.10985008 0.17710464 -0.10023917 0.17012583 0.14855337 0.04550593 -0.13244589 -0.042217404 -0.13584358 0.046119373 -0.005717783 -0.11162951 -0.027029386 0.09173288 -0.037890255 0.0418151 0.12568843 0.096638195 0.002991788 0.14462337 -0.031073468 0.16459793 0.006327804 0.07348512 -0.13375549 -0.074335255 0.08718368 0.08086037 0.009062193 -0.032898515 -0.14442292 -0.11356731 -0.07914485 0.008271274 -0.21296732 0.11232671 -0.043414928 -0.0036326095 -0.114497185 -0.21631874 -0.12505491 -0.032413565 -0.15048394 -0.025770629 0.10064496 0.028942136 0.14120018 -0.065299906 -0.075665854 0.058486562 0.016254628 -0.05382835 -0.04168737 0.07921884 0.0101284655 -0.046648692 0.034211155 0.04722425 0.042086683 0.068460226 0.1146756 -0.10436745
24 0.09645011 0.009891016 0.021584326 -0.15023892 -0.19986746 0.15850522 0.046780527 -0.18381143 0.2358505 -0.12168982 0.003935322 -0.06423267 -0.14831972 -0.017835882 0.07012953 0.061666083 0.069405586 -0.16988105 0.09753612 -0.11365714 -0.07856599 0.0708716 0.0062317573 0.103594474 -0.0642039 0.0035300346 0.021690592 0.26888615 -0.06251131 -0.056993715 0.10424506 0.090907335 -0.031341895 0.23687822 -0.076883726 0.11773224 -0.07401337 0.23720632 0.21851675 0.0045104465 -0.08701114 0.015302895 -0.00818849 0.1755251 -0.08311201 -0.18702616 -0.31280166 0.06263034 -0.07440522 -0.0811515 -0.07671451 -0.07763534 0.10000816 -0.017878635 0.15633722 -0.11833646 -0.27265662 -0.17028177 0.0009695486 0.034210246 0.02654795 0.06840297 0.06993788 -0.066984996 0.074197665 -0.1256406 0.1204542 0.23077743 -0.10043774 0.1779873 0.16496776 0.08814608 -0.121256016 -0.043348353 -0.13678885 -0.009311076 -0.0072184033 -0.13165574 -0.024699507 0.11922693 -0.07568548 0.06859632 0.12337923 0.10233437 0.018539935 0.17198525 -0.020467611 0.1661358 0.026675599 0.1110604 -0.16068412 -0.07246741 0.09191194 0.08854947 -0.03576633 -0.019787133 -0.16919242 -0.1045826 -0.08685976 -0.011739845 -0.23105451 0.16137718 -0.041332006 -0.003022546 -0.11783281 -0.22283523 -0.13570705 0.0106663965 -0.20818368 0.0362956 0.102342315 0.026695883 0.15198343 -0.0065756897 -0.04814146 0.07386305 0.0015807471 -0.026838813 -0.017198965 0.08852706 0.010076207 -0.071010955 0.04468464 0.09738442 0.058614478 0.11936013 0.12459435 -0.07121577
14 0.0657388 0.043757297 -0.09788281 -0.10738112 -0.14697462 0.1740475 0.035769824 -0.15882674 0.20654762 -0.09090288 -0.026902972 -0.08031903 -0.09936639 0.036234204 -0.047730256 0.10090932 0.089524396 -0.06203957 0.04038465 -0.050968915 -0.06033415 0.106236264 0.0456709 0.0693985 -0.14109448 0.040791467 0.00032881618 0.27782902 -0.047582924 -0.079525456 0.009413258 0.02577864 -0.103200026 0.2224778 -0.08219275 0.09170441 -0.11916375 0.20584188 0.12826891 -0.019945215 -0.082052164 -0.012743765 0.038065504 0.15256926 -0.07200136 -0.20788498 -0.29779068 -0.027303994 -0.08815337 -0.06673937 0.00082081574 -0.052210066 0.058365423 -0.030307274 0.14219196 -0.08185242 -0.21803063 -0.11522542 0.003471429 0.012468836 0.03400649 0.061763793 -0.015589906 -0.030146662 0.065473124 -0.19293034 0.11584766 0.14550708 -0.11017515 0.17925116 0.13972795 0.02972829 -0.14988036 -0.05625876 -0.15129478 0.098789 -0.0035511681 -0.09111029 -0.03425711 0.077661306 -0.014743062 0.019015094 0.12222521 0.08818222 -0.018061956 0.13290778 -0.035179287 0.16363804 0.00595935 0.04359507 -0.11521861 -0.08306891 0.07869626 0.06385631 0.034569453 -0.034454674 -0.1448118 -0.11340402 -0.089235015 0.024508232 -0.18867162 0.079651155 -0.038619224 0.0043312428 -0.1092247 -0.20733847 -0.11430806 -0.050159056 -0.12503833 -0.061884325 0.095057674 0.034154233 0.13583805 -0.09847879 -0.101579055 0.054402065 0.013969076 -0.06979694 -0.060140833 0.0708527 0.011805039 -0.026319187 0.040397722 0.011159502 0.016068848 0.03852055 0.12092495 -0.11444604
30 0.09513388 0.010089598 0.005391851 -0.14772694 -0.2010979 0.15553959 0.04614961 -0.18931206 0.23760334 -0.1190087 0.0015739615 -0.06761172 -0.14403696 -0.007626731 0.055865943 0.06922222 0.07225992 -0.16310693 0.09994175 -0.105116576 -0.07542623 0.074612714 0.010674955 0.102083 -0.07274403 0.008809834 0.020734254 0.2750506 -0.057048317 -0.06805761 0.103511624 0.08436098 -0.040154196 0.23535736 -0.07952914 0.11713152 -0.081050985 0.23672234 0.21264444 0.009040868 -0.08566192 0.008479227 -0.0033440248 0.18040262 -0.08650625 -0.18923628 -0.3116495 0.054171287 -0.0777123 -0.08248825 -0.070007816 -0.08095803 0.09733819 -0.017390234 0.15927498 -0.11412873 -0.26914346 -0.1590083 -0.0026177794 0.029943362 0.027039306 0.06885895 0.06728087 -0.0659866 0.06800932 -0.13690537 0.11696656 0.22232789 -0.10210369 0.18209554 0.16896684 0.086404376 -0.12256799 -0.043986563 -0.14232324 -0.004911326 -0.009546731 -0.12921178 -0.030524379 0.11383936 -0.06486829 0.063126266 0.123375595 0.105246484 0.01801406 0.16902128 -0.02312424 0.1745388 0.02697036 0.1136146 -0.1548899 -0.07213291 0.09740889 0.087899044 -0.026916392 -0.016826281 -0.16814476 -0.108322255 -0.08592149 -0.008944764 -0.23241372 0.16056998 -0.03889317 -0.004206239 -0.116547726 -0.21562055 -0.13137077 -0.0027200053 -0.20368978 0.030935913 0.10676686 0.032541867 0.15573597 -0.011042949 -0.051986776 0.076703 -0.00014402329 -0.029492076 -0.017595513 0.085838206 0.014084293 -0.06304685 0.044008758 0.088546254 0.055560607 0.11050838 0.12983322 -0.07453381
8 0.04894917 0.05103146 -0.1280577 -0.0950472 -0.12265592 0.1719722 0.0378119 -0.1457529 0.19232447 -0.07456284 -0.03012175 -0.09070012 -0.09020624 0.05749367 -0.07081594 0.11550374 0.096431755 -0.031493135 0.027476693 -0.03708363 -0.06232539 0.11174857 0.047803286 0.050129503 -0.1619294 0.057222657 -0.009365587 0.26575613 -0.048009444 -0.09132207 -0.013856887 0.011946771 -0.12490996 0.21299191 -0.08168012 0.0866549 -0.13953945 0.20440467 0.10567948 -0.026195109 -0.085439876 -0.020898806 0.039918978 0.14828284 -0.06328448 -0.2160635 -0.30336887 -0.04267796 -0.09184885 -0.064840764 0.018979697 -0.048061687 0.05604512 -0.042374972 0.13907278 -0.06942112 -0.20479529 -0.10938613 0.0031962025 0.013358204 0.032391652 0.064309694 -0.0473241 -0.01722269 0.066223346 -0.21172409 0.11607574 0.12491537 -0.107260786 0.18059032 0.13735205 0.007780026 -0.16438244 -0.05894817 -0.14755431 0.12647466 -0.010179363 -0.08048548 -0.037564326 0.062447906 -0.0013640905 0.00990566 0.12540959 0.0868671 -0.0215528 0.11666377 -0.041257977 0.16734114 -0.008870295 0.027640402 -0.10630738 -0.08240457 0.07574451 0.06480168 0.052977145 -0.04621701 -0.13547789 -0.11802041 -0.08537192 0.029780023 -0.18898003 0.06182542 -0.044254728 0.0011167729 -0.112368956 -0.21767715 -0.11795667 -0.069178134 -0.10334258 -0.090181984 0.100053675 0.03293063 0.13464639 -0.12127129 -0.11194918 0.04774999 0.025245937 -0.0842005 -0.073312595 0.06621812 0.013201908 -0.024736572 0.03537655 -0.014146163 0.010462198 0.027398022 0.123305626 -0.13157117
7 0.007968799 0.08400061 -0.258593 -0.025029652 -0.055424917 0.16272613 0.022185715 -0.10519163 0.16166301 0.0015986412 -0.039005317 -0.114509284 -0.03709908 0.11045849 -0.1916925 0.1732053 0.12262669 0.10049927 -0.032506187 0.056962 -0.04587843 0.1591223 0.054680187 0.006254956 -0.2328091 0.10519585 -0.03488379 0.26028067 -0.030633263 -0.13598575 -0.13052227 -0.058008898 -0.2162493 0.16846062 -0.084797844 0.061383836 -0.19397305 0.17652696 -0.00398916 -0.061979473 -0.07061939 -0.0362849 0.0822629 0.15019782 -0.039736614 -0.25281915 -0.30750796 -0.11147083 -0.113216154 -0.04290749 0.10884106 -0.03760802 0.027165558 -0.067112565 0.114453 -0.016613044 -0.17286809 -0.05048699 0.01692013 0.013752996 0.04370535 0.064070135 -0.14164926 0.015490971 0.05832616 -0.2997078 0.09270253 0.051571045 -0.12851761 0.18701398 0.121490575 -0.06483544 -0.20776115 -0.05584322 -0.1595656 0.21954003 -0.0097212875 -0.057236683 -0.038071465 -0.0036404163 0.057382625 -0.03859309 0.14316002 0.09389886 -0.06774888 0.08212875 -0.055627733 0.17933449 -0.047686536 -0.036774177 -0.06497375 -0.11309844 0.08366719 0.084798254 0.14929107 -0.079516634 -0.09746363 -0.1413167 -0.052484833 0.07332783 -0.17995481 -0.0060022003 -0.033347327 -0.015309939 -0.097105615 -0.22698991 -0.14174515 -0.14785834 -0.028741404 -0.20473967 0.107401066 0.043381505 0.16828693 -0.21619533 -0.18385252 0.025875999 0.05427072 -0.12385239 -0.10016878 0.06744853 0.016036801 0.024751969 0.017069804 -0.09809078 -0.002640392 -0.056402337 0.12637495 -0.1956801
9 0.052886236 0.04571989 -0.119521506 -0.10111073 -0.13326907 0.16730231 0.03794856 -0.1447913 0.19954242 -0.072546385 -0.023675362 -0.08958953 -0.09598305 0.043459624 -0.061534677 0.116528854 0.09823381 -0.037246358 0.037430763 -0.036249433 -0.06440384 0.11157678 0.04320654 0.054212514 -0.14859682 0.051770814 -0.006440603 0.26823825 -0.047903046 -0.090631045 -0.006202561 0.023261778 -0.118538745 0.2132321 -0.07682116 0.08733443 -0.13273217 0.20240021 0.10782623 -0.020253424 -0.08468746 -0.012691624 0.04146688 0.15495603 -0.06201796 -0.21608904 -0.30900362 -0.032787267 -0.09398407 -0.061650902 0.011197274 -0.053074446 0.055909403 -0.039314944 0.13615406 -0.07378322 -0.21971785 -0.11002604 0.0043650693 0.016425531 0.03405913 0.064695515 -0.030528227 -0.024531543 0.0654629 -0.202793 0.1112461 0.13901158 -0.111967854 0.17929398 0.13899358 0.012177439 -0.16034503 -0.04774423 -0.14447697 0.10939257 -0.008497276 -0.08571125 -0.030522132 0.066230565 -0.007010612 0.012911691 0.124809034 0.08742092 -0.019973086 0.12593062 -0.039417773 0.16631433 -0.0051274453 0.034945603 -0.104012735 -0.087545194 0.07871434 0.073697776 0.05317205 -0.04185672 -0.13798901 -0.11609008 -0.07824424 0.0313062 -0.19973181 0.075380675 -0.04244275 -0.0018616922 -0.101760894 -0.21732463 -0.12464571 -0.06485293 -0.11540842 -0.08328141 0.10099581 0.036734603 0.14573191 -0.11172259 -0.108397126 0.048067663 0.028090237 -0.077383205 -0.059013184 0.06842468 0.014540513 -0.026257088 0.030044304 -0.005533132 0.021567354 0.028927024 0.12421446 -0.12834294
28 0.08587969 0.018876819 -0.019273099 -0.13595316 -0.18101397 0.15963116 0.049760297 -0.18109673 0.22455624 -0.107881084 -0.005777625 -0.07030461 -0.12942101 0.001254465 0.029187404 0.074315995 0.07729091 -0.13194627 0.07772851 -0.09543167 -0.07324698 0.08439721 0.021448068 0.08696016 -0.09085314 0.01599238 0.013219217 0.2703639 -0.059007682 -0.07036757 0.07366565 0.06714901 -0.05380135 0.22972444 -0.07504386 0.11169277 -0.0899177 0.22939266 0.183269 -0.0011404362 -0.083654605 0.0013575169 0.002289505 0.17081001 -0.0728297 -0.19046381 -0.3040864 0.033151656 -0.08120755 -0.07712672 -0.056130808 -0.06659241 0.08494756 -0.02617696 0.1471466 -0.10066571 -0.25085482 -0.15217732 -0.0015872279 0.028267646 0.029410351 0.06414916 0.038747385 -0.05277706 0.06938946 -0.14479028 0.1149015 0.19829497 -0.10678817 0.1789388 0.15669863 0.06336193 -0.13085409 -0.05199717 -0.14325061 0.023067383 -0.009021083 -0.12007422 -0.033739664 0.10486602 -0.05806775 0.054317478 0.12344867 0.1017069 0.00636661 0.1579162 -0.0288016 0.16464174 0.020455753 0.09135082 -0.14237544 -0.07640859 0.091940865 0.084262684 -0.016162032 -0.0235213 -0.15707679 -0.10940675 -0.085549876 0.0029341371 -0.22129886 0.13084738 -0.043153208 0.0014325747 -0.11226816 -0.2151858 -0.13046885 -0.010949532 -0.17697883 0.005435874 0.1007964 0.029279582 0.14325076 -0.040811837 -0.06537363 0.06633953 0.0039939857 -0.04103826 -0.029937167 0.08206158 0.013551634 -0.05567941 0.039982647 0.06903558 0.04594675 0.088616475 0.12138207 -0.08815107
6 0.016079983 0.07972882 -0.23932698 -0.03855809 -0.06716208 0.16249327 0.021759013 -0.10865479 0.16851974 -0.014064643 -0.03652842 -0.10988602 -0.053265765 0.101521306 -0.1693636 0.16857232 0.1167781 0.07434559 -0.016748013 0.04042866 -0.053114146 0.15489942 0.05256525 0.015624588 -0.22304763 0.09267879 -0.030097777 0.2623392 -0.033842385 -0.13067865 -0.10641155 -0.042163488 -0.19987653 0.18041694 -0.08681421 0.068352364 -0.18595317 0.18514179 0.015813168 -0.05442587 -0.07747958 -0.035825938 0.06939369 0.15150124 -0.038553685 -0.24343918 -0.3055569 -0.09812101 -0.10379786 -0.044286404 0.09371284 -0.04100604 0.032910593 -0.061909728 0.114762396 -0.02142693 -0.17357351 -0.061642528 0.012544693 0.014417337 0.043475986 0.0685089 -0.12365987 0.009327493 0.05758051 -0.28367704 0.09625892 0.0668782 -0.12602225 0.18160863 0.1293738 -0.051013187 -0.2025964 -0.05347067 -0.15273947 0.20413241 -0.013624154 -0.06522385 -0.035552476 0.0053270063 0.04832915 -0.025211012 0.13555841 0.09720595 -0.055789605 0.092585534 -0.0593572 0.18194105 -0.04144936 -0.019752854 -0.069786966 -0.10295222 0.08793331 0.085586876 0.12846221 -0.07768855 -0.10199258 -0.13595913 -0.052883357 0.07253761 -0.18342774 0.006968245 -0.036712687 -0.011631697 -0.094273 -0.22325265 -0.14295119 -0.12938426 -0.044274475 -0.1862266 0.10775613 0.04628474 0.16105166 -0.19864127 -0.17654173 0.029118897 0.049138363 -0.12063622 -0.08967332 0.0693994 0.015484922 0.01354182 0.021451142 -0.08759481 -0.0008083941 -0.04484496 0.12116917 -0.18690158
5 0.014181105 0.089421935 -0.27490392 -0.03557492 -0.05637565 0.17677559 0.019342091 -0.11243309 0.16242354 -0.010156789 -0.045206968 -0.11337498 -0.033741225 0.11983562 -0.20151223 0.17913984 0.1303681 0.103620075 -0.03676999 0.05622829 -0.04612646 0.16651502 0.0691856 0.00873624 -0.24547224 0.11095869 -0.03559664 0.27327755 -0.029919833 -0.13662502 -0.13693179 -0.062106226 -0.22521551 0.18811803 -0.09471589 0.061012596 -0.20385002 0.1841999 -0.004770706 -0.061202735 -0.08074758 -0.044820685 0.08825245 0.14839898 -0.04531641 -0.2651746 -0.33054903 -0.1313628 -0.11595001 -0.043654304 0.11260041 -0.032416727 0.027532332 -0.063447416 0.12268192 -0.015501396 -0.1764569 -0.058847222 0.014942664 0.0018980898 0.048845887 0.06945753 -0.1549686 0.018813184 0.05743336 -0.31273907 0.10165299 0.049375296 -0.13668281 0.19803362 0.12440595 -0.06781413 -0.22249846 -0.06377307 -0.17290992 0.24528046 -0.0065213456 -0.052326832 -0.039669704 -0.00013563014 0.060449317 -0.041193493 0.14451449 0.09934892 -0.06947777 0.08820907 -0.06283672 0.19289818 -0.04829324 -0.037721314 -0.07167706 -0.11617587 0.081728905 0.08383102 0.1566928 -0.082498625 -0.10726498 -0.14989004 -0.06631438 0.08033092 -0.1813672 -0.014403452 -0.04010017 -0.007421451 -0.106791645 -0.24151838 -0.14490084 -0.15300825 -0.02608148 -0.21332219 0.10788193 0.04957102 0.16652165 -0.23209102 -0.19905284 0.03263281 0.053975295 -0.14108297 -0.11131948 0.06528776 0.018116567 0.025217073 0.025621558 -0.10988139 -0.016468754 -0.061478343 0.13303107 -0.20135263
25 0.072943 0.026639631 -0.041033562 -0.12736033 -0.17038052 0.158038 0.045981437 -0.16464077 0.21158138 -0.10188577 -0.007627661 -0.069396675 -0.12290044 0.016397879 0.009510499 0.08052649 0.07812876 -0.1102269 0.070452936 -0.083323896 -0.06685725 0.09258161 0.020136707 0.077262916 -0.10261002 0.022389345 0.008324402 0.2628463 -0.051531017 -0.07414691 0.05431566 0.059105888 -0.0661741 0.22632034 -0.07371482 0.1028675 -0.10370414 0.21725884 0.1643909 -0.011198286 -0.08662129 0.0036897673 0.010865009 0.16042158 -0.07005554 -0.20324405 -0.30870068 0.01703302 -0.080379136 -0.0749135 -0.036789555 -0.063304104 0.07506592 -0.026130438 0.1496262 -0.0995024 -0.24569671 -0.14426136 -0.0007285614 0.023764916 0.0339042 0.06561876 0.018214945 -0.04795567 0.068712205 -0.15030184 0.11674863 0.18453163 -0.1018519 0.16818199 0.1494257 0.050873466 -0.13560413 -0.04177542 -0.13618167 0.04641861 -0.010052326 -0.11608394 -0.029112613 0.09253188 -0.045215264 0.040186763 0.12611449 0.09531969 0.0071944157 0.14936529 -0.026382085 0.15815556 0.00870491 0.07330828 -0.12772776 -0.07708834 0.09045457 0.07964332 -0.0022327946 -0.028458828 -0.14861031 -0.10757033 -0.081851244 0.007344225 -0.21388629 0.11715864 -0.0405517 0.0005863624 -0.11559284 -0.2202534 -0.12790878 -0.021102289 -0.15782186 -0.016112983 0.1051392 0.03083977 0.14811733 -0.054600164 -0.07328519 0.058363583 0.015294815 -0.049530882 -0.04372659 0.084018596 0.017795665 -0.0503779 0.038417824 0.052078295 0.039641768 0.07587483 0.12519674 -0.100945495
29 0.0686405 0.035046563 -0.07149246 -0.11877389 -0.15543832 0.15988204 0.04637236 -0.16282323 0.2174207 -0.09171477 -0.008832284 -0.07860153 -0.11117077 0.020277327 -0.018782496 0.09729384 0.08952304 -0.081722274 0.060180373 -0.06769279 -0.06474355 0.10235635 0.03349718 0.077637546 -0.12542747 0.031045124 0.005158427 0.27313533 -0.053684317 -0.08190569 0.030470423 0.040725425 -0.093615964 0.22744505 -0.08041298 0.09831468 -0.11627932 0.21950789 0.14988792 -0.013735663 -0.081730455 -0.009052719 0.024868978 0.16550131 -0.065449595 -0.20144913 -0.309288 0.0027246834 -0.087642975 -0.069394626 -0.023532992 -0.061092537 0.068914816 -0.030497978 0.14548983 -0.08850445 -0.2364903 -0.13285272 0.0014600867 0.022987196 0.03722037 0.06293258 0.0016510275 -0.040566687 0.067365736 -0.17548786 0.10965404 0.16893293 -0.110092975 0.17907542 0.14559622 0.036646582 -0.14782411 -0.049307138 -0.14126912 0.06653809 -0.006489483 -0.10351225 -0.034964528 0.08767482 -0.028275171 0.030641284 0.12266213 0.096056774 -0.0075767 0.14087954 -0.03342475 0.16390629 0.0073808692 0.061436415 -0.12491092 -0.0824551 0.08792989 0.079272985 0.018619636 -0.036478635 -0.15167724 -0.118149355 -0.082741596 0.01346415 -0.21057495 0.10466494 -0.043480236 -0.0008133349 -0.10642338 -0.2126076 -0.1280925 -0.04433802 -0.14639223 -0.043550026 0.10628818 0.035615247 0.14633672 -0.07990657 -0.089657374 0.061189715 0.01698562 -0.05611427 -0.046304364 0.08092988 0.012145563 -0.043330126 0.04075974 0.03005331 0.035941735 0.0615628 0.11913654 -0.11082528
31 0.061212823 0.03961915 -0.090219446 -0.10407332 -0.14350323 0.1630498 0.04226966 -0.1577456 0.20857023 -0.0830696 -0.011314009 -0.0781125 -0.10581892 0.027148431 -0.030482203 0.105441004 0.08736311 -0.06791491 0.046441674 -0.05139336 -0.06446657 0.107991874 0.03444751 0.06999292 -0.13118061 0.042930506 0.00044791953 0.2630014 -0.047471326 -0.08801379 0.021061933 0.037263874 -0.09931818 0.21316089 -0.07567187 0.094334275 -0.11539191 0.21124025 0.1347372 -0.019182693 -0.08024386 -0.007329024 0.025860012 0.16174991 -0.068853885 -0.21156253 -0.3096317 -0.012159809 -0.09096212 -0.062388934 -0.0032100186 -0.05958948 0.0692487 -0.029424574 0.14374994 -0.07878378 -0.23011377 -0.118396744 0.00052209955 0.01690225 0.034264553 0.06723708 -0.009847091 -0.03013634 0.06814009 -0.18705411 0.104979634 0.15726852 -0.107179254 0.1763586 0.14316328 0.031357702 -0.14832883 -0.050224423 -0.14430904 0.083025314 -0.0033604295 -0.10081312 -0.029535921 0.074115545 -0.01762851 0.020927912 0.12458679 0.09592404 -0.011000585 0.13624497 -0.02921536 0.1627019 0.0038172547 0.05384694 -0.11908032 -0.08055177 0.08775436 0.08080156 0.034414846 -0.036242742 -0.1443664 -0.11738334 -0.07827072 0.017681895 -0.20590067 0.096441865 -0.038138207 -0.0033834858 -0.10387351 -0.2126958 -0.12564312 -0.04725518 -0.13530013 -0.050948765 0.1006993 0.02950466 0.14790125 -0.08602246 -0.09885453 0.05499013 0.015829647 -0.0674655 -0.049801543 0.0725905 0.0107331425 -0.031662192 0.03806245 0.018514186 0.028709937 0.050434895 0.11849873 -0.11573811
26 0.079155594 0.02851138 -0.02678309 -0.12806913 -0.16982265 0.1501701 0.0394924 -0.17009416 0.21424265 -0.10044548 -0.004614425 -0.06831078 -0.11945805 0.007747982 0.015321957 0.0748004 0.08000049 -0.11947946 0.07508244 -0.08356454 -0.07388588 0.0851475 0.017066581 0.08279788 -0.08956977 0.024230229 0.008702404 0.25992796 -0.05030175 -0.07380843 0.06299828 0.06650922 -0.06067417 0.22489038 -0.076562956 0.11065157 -0.09652431 0.22508034 0.16662097 -0.004300093 -0.08478563 0.0057115187 0.001815304 0.16272657 -0.075554915 -0.1912649 -0.30625728 0.028115315 -0.07740851 -0.07237135 -0.046649512 -0.06503714 0.08074699 -0.029013285 0.15102714 -0.096587 -0.24913248 -0.14570837 -0.0017147242 0.022173585 0.028554248 0.06016218 0.030026702 -0.052350227 0.068900086 -0.15151474 0.113813296 0.1851418 -0.09856473 0.17370023 0.15533426 0.058155965 -0.130287 -0.048260912 -0.1418611 0.0320806 -0.011258728 -0.11103951 -0.032300603 0.0954699 -0.04941702 0.05139199 0.124456644 0.102062635 0.004289969 0.14984505 -0.029524984 0.16667661 0.014569586 0.086187206 -0.14026521 -0.07411714 0.08516371 0.084857754 -0.0058137393 -0.024404652 -0.14601713 -0.10516674 -0.084600486 0.0061798063 -0.21039543 0.11620183 -0.039940163 -0.005895656 -0.11320763 -0.21373461 -0.12984456 -0.0186178 -0.1600432 -0.009185228 0.09900712 0.031935465 0.14688711 -0.052808713 -0.07418243 0.057192694 0.007573024 -0.043301288 -0.037562627 0.08125238 0.011108425 -0.05528375 0.036758807 0.06028646 0.044689935 0.079107225 0.11573339 -0.098172486
11 0.022995649 0.07890589 -0.23244716 -0.0514737 -0.079547204 0.17446786 0.025744086 -0.1214348 0.17991988 -0.026976148 -0.04136943 -0.110216126 -0.060397897 0.09835243 -0.16723268 0.16172619 0.12573434 0.06397948 -0.015564352 0.028822457 -0.051444523 0.15380268 0.056523528 0.019627893 -0.22621943 0.09508434 -0.02428189 0.28042197 -0.035177007 -0.12319376 -0.10162473 -0.037411228 -0.19828044 0.19769609 -0.08703083 0.06731313 -0.18652567 0.19439925 0.031397283 -0.050467573 -0.0810011 -0.034167323 0.07660417 0.151175 -0.049233567 -0.25290173 -0.32633537 -0.09926174 -0.106421135 -0.05142686 0.08264009 -0.042080253 0.03286814 -0.06030313 0.1277397 -0.03494192 -0.18842755 -0.074769326 0.0078140665 0.0095658 0.04641554 0.07030776 -0.1223989 0.010327941 0.06003647 -0.2856232 0.1046692 0.07549447 -0.13220431 0.19406657 0.13060951 -0.04381826 -0.2067716 -0.05389677 -0.16606814 0.20596406 -0.007462362 -0.06034848 -0.03997275 0.020660533 0.045267623 -0.024747316 0.14232536 0.09315328 -0.056444746 0.09708365 -0.056456946 0.18442914 -0.03177408 -0.022216987 -0.07953112 -0.106056124 0.0832568 0.08321837 0.124288745 -0.075122826 -0.11446023 -0.14489543 -0.07049224 0.06177658 -0.19188118 0.0077277995 -0.037557285 -0.0066625155 -0.10353932 -0.23065938 -0.13922362 -0.13129069 -0.050470337 -0.18275034 0.10749665 0.041116912 0.158344 -0.20212053 -0.17227374 0.039306648 0.04362816 -0.12200346 -0.10023203 0.07107752 0.019157832 0.008855758 0.0276706 -0.07448432 -0.0045815813 -0.035647962 0.13220859 -0.1876832
20 0.05601613 0.0500178 -0.12115612 -0.10209966 -0.1323512 0.1693731 0.036848307 -0.15218481 0.19993368 -0.07616269 -0.020292202 -0.08584266 -0.09269899 0.044301912 -0.061879694 0.10976022 0.091805115 -0.03971023 0.03252946 -0.036510486 -0.06144129 0.11185553 0.04667959 0.062342007 -0.15249927 0.048784144 -0.00017146699 0.26924503 -0.04659114 -0.09155763 -0.0023330208 0.018062226 -0.11656148 0.20919442 -0.07789689 0.0883542 -0.12887783 0.19625814 0.10863881 -0.02519728 -0.0833868 -0.014198085 0.03818569 0.15181349 -0.065616354 -0.21127884 -0.3041116 -0.03081621 -0.08774528 -0.06405356 0.012391147 -0.050972633 0.05511978 -0.03136003 0.13044219 -0.070936985 -0.213897 -0.11069044 0.0058742757 0.013456262 0.036491584 0.058297556 -0.032016683 -0.026597848 0.05938196 -0.19598573 0.10661462 0.13122012 -0.11063879 0.17050588 0.13587767 0.019095693 -0.15104839 -0.04696161 -0.14282532 0.110635936 -0.0043462804 -0.0911095 -0.03658903 0.06599251 -0.008622734 0.0139611 0.12754723 0.085876234 -0.020687742 0.12550648 -0.03426829 0.1662897 -0.003738482 0.036986966 -0.10839489 -0.08647456 0.083154924 0.07072959 0.04955688 -0.045437455 -0.12946717 -0.115298785 -0.073523894 0.03174177 -0.1920997 0.07095516 -0.042843737 -0.00069958286 -0.10227815 -0.2094952 -0.115313135 -0.064800784 -0.10815703 -0.077042 0.10189468 0.03207657 0.13852827 -0.10643796 -0.11035753 0.04363987 0.023273688 -0.07457506 -0.058771476 0.0707639 0.015841 -0.023517985 0.032901175 -0.0026117703 0.023501046 0.02985574 0.112242684 -0.12557112
10 0.082246155 0.02497035 -0.025460556 -0.13669229 -0.1782217 0.1590893 0.04814332 -0.17718536 0.22258826 -0.10634896 -0.00873668 -0.072816975 -0.12971668 0.0021321545 0.018547444 0.08059008 0.080921926 -0.1265196 0.07598026 -0.09067828 -0.06971144 0.08768301 0.026427185 0.08418713 -0.09099214 0.016091688 0.01781325 0.26503208 -0.05279015 -0.06558502 0.07190601 0.07041092 -0.062189654 0.2334033 -0.076946706 0.10917879 -0.09164188 0.2237004 0.18024877 -0.0038214095 -0.08387646 0.00082058134 0.014456421 0.16656977 -0.073500074 -0.19150022 -0.3000149 0.027143136 -0.079741076 -0.0714708 -0.046325784 -0.06833757 0.08137217 -0.019199818 0.14670146 -0.103586 -0.24801046 -0.14539725 -0.00021621838 0.023668095 0.024762323 0.065608375 0.03713304 -0.04898883 0.06843436 -0.14248264 0.11966707 0.19035809 -0.09862402 0.16770536 0.14944008 0.06376041 -0.12723424 -0.046190083 -0.13579977 0.033717416 -0.003264191 -0.11302456 -0.030934012 0.10272309 -0.051639546 0.050730586 0.1204131 0.09113712 0.0055585867 0.15440026 -0.020769583 0.16457273 0.016893111 0.08450818 -0.1414167 -0.077462696 0.08404725 0.07785387 -0.005824944 -0.021842249 -0.160669 -0.10915848 -0.08599186 -0.001312198 -0.20892861 0.123264104 -0.04329914 0.0025230348 -0.109018505 -0.20860608 -0.11990428 -0.011959997 -0.16430376 -0.0050053834 0.101873085 0.028064609 0.1421092 -0.03883932 -0.06802878 0.0624411 0.0051735817 -0.040817853 -0.035776213 0.07669356 0.0144482795 -0.054388024 0.038918823 0.062435653 0.03919997 0.08506653 0.117969185 -0.089420885
22 0.042602196 0.059109777 -0.16305213 -0.08507537 -0.11140894 0.17790937 0.036735773 -0.13988471 0.19102272 -0.06265342 -0.032373663 -0.09753843 -0.08117158 0.07057777 -0.09872716 0.12953559 0.11106869 -0.004533394 0.018879622 -0.017489197 -0.056055628 0.13157076 0.055759817 0.047828782 -0.18430486 0.06655737 -0.00745572 0.27655125 -0.04866187 -0.10274243 -0.04208565 -0.0013231578 -0.14402531 0.21083507 -0.08120877 0.07972763 -0.15064068 0.19861966 0.086402886 -0.035795256 -0.08436898 -0.020773757 0.057010815 0.14862524 -0.06308528 -0.22792356 -0.31025028 -0.05698362 -0.09331705 -0.057594147 0.042684123 -0.04859277 0.048564594 -0.042560525 0.13093767 -0.057622775 -0.20366673 -0.100282155 0.01052055 0.014115324 0.038888153 0.068152145 -0.065958835 -0.01450182 0.06611325 -0.22783929 0.1110414 0.11206664 -0.11275318 0.17589623 0.12994838 -0.008363022 -0.16573024 -0.052534148 -0.14828698 0.14575669 -0.0022791005 -0.07688549 -0.032706656 0.04960868 0.018819273 -0.0056622066 0.13052818 0.08810287 -0.03444204 0.109151796 -0.03994179 0.1691819 -0.013343567 0.014132571 -0.09470669 -0.089371935 0.07664467 0.074234344 0.0794439 -0.05457276 -0.12748799 -0.12335811 -0.07881893 0.043284725 -0.18612616 0.050940152 -0.039497644 -0.0038204642 -0.1024883 -0.21548621 -0.12675278 -0.08348264 -0.08987137 -0.11853981 0.104327746 0.03736174 0.14473325 -0.13912591 -0.13493043 0.04363297 0.028735261 -0.095513746 -0.07611411 0.06540207 0.015860772 -0.014286327 0.027810408 -0.032958552 0.011729941 0.009193549 0.12556928 -0.1492998
19 0.08720291 0.013082027 -0.009454564 -0.13924089 -0.18582453 0.15325768 0.046407193 -0.17288177 0.22385214 -0.109762415 -0.0023475261 -0.06784196 -0.13195248 -0.0041443775 0.04030263 0.07294616 0.06989664 -0.13722083 0.08704988 -0.09633312 -0.070916235 0.08075798 0.013503861 0.090513304 -0.0799296 0.008965755 0.01474647 0.25925702 -0.055463776 -0.06355669 0.08366563 0.07144061 -0.045342855 0.22891779 -0.071381934 0.11242574 -0.08101753 0.2245815 0.19187796 0.006096549 -0.078229174 0.004986198 0.002264576 0.16559806 -0.07637905 -0.18722564 -0.30231428 0.04210333 -0.07832363 -0.07578518 -0.05661352 -0.07424085 0.09006402 -0.021540454 0.15200429 -0.104970485 -0.25341827 -0.14686848 -0.0026185666 0.029150566 0.031451758 0.06993739 0.048437484 -0.05790828 0.072197296 -0.1363695 0.11315863 0.20737709 -0.09625799 0.17264307 0.15488304 0.06696463 -0.11924732 -0.04501845 -0.13550144 0.016358554 -0.011405516 -0.1161704 -0.025108704 0.10206272 -0.059712794 0.054055937 0.118050724 0.098538145 0.011378738 0.15647165 -0.021757755 0.16400397 0.024797235 0.092547074 -0.14030272 -0.06975451 0.08934067 0.08280604 -0.01579947 -0.023542168 -0.16201332 -0.1053449 -0.0796046 0.0012157172 -0.22047418 0.14294447 -0.04048278 -0.0058134766 -0.10864929 -0.21469803 -0.12810926 -0.008050819 -0.18553977 0.0072750035 0.10125864 0.026641263 0.14733401 -0.026066631 -0.056593105 0.07132562 0.0025632496 -0.041620832 -0.027412146 0.07850736 0.009372764 -0.059270605 0.044641007 0.06912257 0.049483005 0.09682661 0.12181768 -0.07723855
17 0.016149024 0.07625286 -0.25376552 -0.024646783 -0.054139003 0.16411875 0.024294287 -0.10805427 0.16116276 -0.002050183 -0.034111425 -0.1104686 -0.035490405 0.09865705 -0.18628526 0.1699096 0.123376936 0.09670786 -0.027487352 0.057895266 -0.048849657 0.15893154 0.05452598 0.008181549 -0.2294672 0.101869375 -0.02989273 0.26256698 -0.024367917 -0.1337572 -0.123232454 -0.050570033 -0.21070498 0.16746867 -0.08895079 0.06689919 -0.18388824 0.17895137 0.0015614959 -0.058628306 -0.07317257 -0.03270227 0.0762003 0.14990647 -0.034144066 -0.2345094 -0.3006699 -0.11275315 -0.11077214 -0.034578633 0.10359081 -0.040547248 0.029666401 -0.058445837 0.10348553 -0.012621848 -0.16375196 -0.044024296 0.013378326 0.005739406 0.043994755 0.063688435 -0.13742805 0.008257289 0.051848028 -0.29369393 0.090203814 0.057490006 -0.13403015 0.18010963 0.12556946 -0.062729955 -0.2052108 -0.05676009 -0.15499794 0.2148599 -0.008287961 -0.05033955 -0.032133356 -0.0048623113 0.05409622 -0.028011026 0.13862228 0.09878555 -0.061062876 0.08893384 -0.058806334 0.18255748 -0.04055374 -0.029217985 -0.07353802 -0.10840429 0.08555023 0.091939904 0.14431709 -0.08322782 -0.10142907 -0.13363706 -0.046282448 0.07370957 -0.18108368 -0.004018077 -0.038096428 -0.007827715 -0.08375685 -0.22006957 -0.14497286 -0.14723016 -0.02649034 -0.19874741 0.10126207 0.04423778 0.16094698 -0.2101397 -0.18424705 0.03271735 0.04738497 -0.12584843 -0.093034275 0.06901589 0.010691582 0.026220998 0.024987727 -0.100522116 0.0019517825 -0.057803176 0.12219769 -0.19319801
23 0.093391135 0.0059396005 0.015786916 -0.14616252 -0.19476002 0.1512134 0.051195238 -0.17888995 0.23460186 -0.112651564 0.010121817 -0.06573023 -0.14325795 -0.017007118 0.064507134 0.0649502 0.07017764 -0.163996 0.09599496 -0.10816899 -0.070837066 0.07640891 0.0048146984 0.094882965 -0.064419225 -0.0015082564 0.021643898 0.26098797 -0.05404448 -0.062441528 0.09960831 0.08281136 -0.033332735 0.22648595 -0.06972043 0.11161113 -0.07345991 0.22939841 0.20754318 0.0114967385 -0.07577004 0.013074568 -0.007793294 0.1698566 -0.07596065 -0.17376065 -0.29023734 0.054754585 -0.06947229 -0.07938673 -0.07197994 -0.07301653 0.08988143 -0.018928 0.14497046 -0.10988897 -0.25819767 -0.15105514 -0.0016835666 0.028834736 0.029305968 0.064960115 0.07186701 -0.063433014 0.06453722 -0.11453519 0.108559944 0.21400577 -0.09798013 0.16394228 0.15807116 0.08035169 -0.109272845 -0.043099467 -0.12386828 -0.013982743 -0.0110413525 -0.12997366 -0.024357026 0.11068526 -0.06492156 0.059614506 0.116507605 0.09777965 0.017565556 0.16180117 -0.019743111 0.15401445 0.024177771 0.10937283 -0.14392373 -0.06573923 0.08652736 0.087087825 -0.038545668 -0.013548689 -0.16175158 -0.10104684 -0.07594011 -0.010792529 -0.22186534 0.15529695 -0.04141686 -0.0013741634 -0.10566168 -0.1999947 -0.12774794 0.0090824645 -0.19688162 0.032737434 0.09839532 0.028817536 0.14539015 -0.0027022427 -0.04615073 0.06605225 0.0014758408 -0.029849876 -0.010288557 0.08213039 0.010031327 -0.062195692 0.0394719 0.0902 0.058793947 0.106226526 0.11806717 -0.06423889
18 0.042854663 0.06167357 -0.15479304 -0.0820986 -0.11351179 0.16961879 0.036060285 -0.13820161 0.1894105 -0.055281054 -0.025443438 -0.09245207 -0.076379 0.065597646 -0.09660594 0.12396928 0.10338093 -0.004003889 0.015826434 -0.010870574 -0.060439926 0.12619041 0.048668917 0.04512948 -0.17598796 0.06464104 -0.010047812 0.26381415 -0.043040823 -0.10170744 -0.0405474 -0.0051874234 -0.1438649 0.20773081 -0.08361063 0.08099695 -0.14717183 0.20040955 0.08555388 -0.030220779 -0.08224428 -0.02214755 0.05138674 0.14990012 -0.057835877 -0.22814108 -0.30927038 -0.054254998 -0.096083246 -0.056213066 0.03697183 -0.047534782 0.051098783 -0.042424846 0.13053231 -0.05855522 -0.20640597 -0.09639708 0.0064349077 0.011206303 0.034943562 0.06184837 -0.0660376 -0.011146932 0.061642215 -0.22874643 0.102647424 0.10982916 -0.10947991 0.1798289 0.13395943 -0.010579007 -0.1702116 -0.054907862 -0.15128341 0.13997835 -0.008696539 -0.07760585 -0.035907377 0.0426538 0.0154871205 0.0015613588 0.12484174 0.09141021 -0.03148193 0.10644489 -0.040289976 0.16486499 -0.013836915 0.015650049 -0.09553574 -0.08769357 0.08049568 0.07445367 0.07482899 -0.053211343 -0.12453821 -0.12040509 -0.07465011 0.044497203 -0.1906328 0.048542105 -0.041190844 -0.0071174884 -0.10577536 -0.2219004 -0.13094419 -0.08201588 -0.09343123 -0.116023846 0.10257442 0.03771565 0.14690022 -0.13783014 -0.13363576 0.04235541 0.029520372 -0.091608904 -0.074344985 0.07190608 0.016479595 -0.015179545 0.034811977 -0.033287402 0.008217892 0.010387992 0.12659647 -0.14576513
16 0.07633292 0.023159005 -0.027931463 -0.118982434 -0.16320041 0.150377 0.045001205 -0.15999694 0.20430242 -0.09263429 -0.0004109008 -0.06959088 -0.11693195 0.0049725664 0.02325524 0.07630879 0.06842505 -0.11436242 0.07071014 -0.081193924 -0.06689231 0.08335764 0.01632788 0.08071274 -0.08779199 0.020138968 0.010739184 0.2474048 -0.051474042 -0.0693309 0.06338594 0.055844136 -0.06261604 0.2102198 -0.07042911 0.0975697 -0.09100541 0.20572585 0.16597883 0.00024289347 -0.073653564 0.006774868 0.0061623207 0.15288945 -0.06954047 -0.18080701 -0.27614006 0.02307003 -0.076238416 -0.063929304 -0.044798896 -0.06371193 0.079434805 -0.023811782 0.13487163 -0.08732934 -0.23000078 -0.13067959 0.0018426825 0.026767183 0.026447104 0.060389746 0.03044785 -0.046620306 0.06396575 -0.14262289 0.10564022 0.17775632 -0.09274668 0.15745853 0.14629957 0.05596897 -0.11892219 -0.045130946 -0.12666991 0.027935237 -0.0069384277 -0.10735544 -0.029207308 0.090218745 -0.04545184 0.04426604 0.11038136 0.09217469 0.00525198 0.14212663 -0.025120573 0.15201642 0.01689899 0.08209676 -0.1271574 -0.07137375 0.08143937 0.071197815 -0.002284701 -0.028377917 -0.14678718 -0.09689808 -0.07681823 0.0063477587 -0.19854172 0.117734306 -0.0385835 -0.0045081703 -0.101504534 -0.19858466 -0.11802418 -0.018251706 -0.15710792 -0.0070787147 0.094905466 0.027878823 0.13717282 -0.042280007 -0.0685454 0.06258791 0.010100047 -0.038491406 -0.029118007 0.072916515 0.009767988 -0.044396766 0.039881654 0.049542807 0.043690987 0.07949816 0.11674324 -0.08124705
27 0.0735564 0.017920779 -0.019174095 -0.12153364 -0.17005345 0.15114132 0.04227198 -0.1571048 0.2131969 -0.09770297 -0.004839019 -0.07162383 -0.116528 0.0064218454 0.029129751 0.07737201 0.069636986 -0.12477006 0.0741864 -0.08631723 -0.069623455 0.081677176 0.011857007 0.07656841 -0.08465732 0.016386174 0.0150650665 0.25082383 -0.049774036 -0.06752668 0.06857435 0.062153697 -0.054380987 0.21718663 -0.07570732 0.10590671 -0.0870103 0.21929915 0.17478597 -0.0016531895 -0.076045625 0.005187863 0.0053337286 0.16320843 -0.07150188 -0.1841292 -0.29111353 0.03027299 -0.07540255 -0.07200185 -0.052295562 -0.070613064 0.08566648 -0.01957843 0.14261845 -0.09545514 -0.23959975 -0.14082485 -0.0012418785 0.027621744 0.03037168 0.069195375 0.036509592 -0.053171147 0.06722478 -0.15005662 0.11338558 0.19556099 -0.10419188 0.17757751 0.1575754 0.060430523 -0.12995967 -0.04537519 -0.13372122 0.028501151 -0.004635589 -0.11242432 -0.027167505 0.099840164 -0.05353345 0.047155414 0.11908127 0.090963066 0.010282943 0.15503815 -0.02354774 0.1686715 0.013451599 0.08493512 -0.13823919 -0.068155065 0.08347755 0.08224787 -0.008441654 -0.024829378 -0.15337649 -0.10691256 -0.08456635 0.0022261334 -0.2107848 0.12784943 -0.039796185 -0.0026527827 -0.11201445 -0.20890561 -0.12676035 -0.021298137 -0.16781047 -0.009043686 0.1013543 0.026512401 0.14018828 -0.04028324 -0.06331534 0.065876305 0.007469141 -0.042012244 -0.029112507 0.078570776 0.013720097 -0.049935203 0.041335367 0.056226596 0.037570573 0.08552185 0.115723334 -0.08007581
15 0.074259825 0.032279067 -0.047444053 -0.12135461 -0.17220387 0.15967095 0.04442127 -0.17356001 0.22446735 -0.096226476 -0.0053949105 -0.07468841 -0.120245084 0.015908694 0.009419356 0.09230775 0.079259165 -0.112518124 0.06820812 -0.07575913 -0.0677623 0.098155804 0.020799778 0.08081746 -0.10396811 0.027030703 0.006537348 0.27036476 -0.056347862 -0.07951833 0.05154508 0.057522025 -0.07505684 0.22656617 -0.07793983 0.10847282 -0.10375033 0.2223489 0.16863877 -0.0068345885 -0.082481146 0.00027079615 0.01342558 0.1700231 -0.071164556 -0.19967395 -0.30337143 0.023402678 -0.08092511 -0.068398125 -0.03495661 -0.07139913 0.07935329 -0.025810149 0.1448332 -0.09336628 -0.25008863 -0.13893491 0.003914703 0.028947419 0.03612849 0.0683644 0.026302306 -0.046983074 0.06994179 -0.16264907 0.11259424 0.18879056 -0.10195641 0.1802819 0.15127073 0.05138383 -0.13872835 -0.043886956 -0.14060828 0.045221824 -0.0061474037 -0.115395546 -0.025126467 0.09469757 -0.039069347 0.037447546 0.12273434 0.09437822 0.0021516532 0.15396546 -0.029874323 0.16628364 0.0162497 0.07612069 -0.13722704 -0.073911384 0.093670644 0.08437427 0.007641075 -0.029726332 -0.15381637 -0.112982236 -0.079139754 0.0065032165 -0.22029631 0.1246281 -0.038678672 -0.0032007666 -0.1139427 -0.21655852 -0.13282925 -0.02809113 -0.16557267 -0.017879665 0.10120596 0.031001648 0.1482065 -0.053548846 -0.08079479 0.06174979 0.011453435 -0.051814932 -0.036086727 0.07888711 0.012084749 -0.050924294 0.038834456 0.04603464 0.042150654 0.08144358 0.12951252 -0.09651001
21 0.076939605 0.026049027 -0.04569605 -0.12825839 -0.17303905 0.15777381 0.048821867 -0.16755965 0.21609256 -0.101233184 -0.0067289504 -0.07607506 -0.12348266 0.012508085 0.0134816095 0.09028206 0.084961005 -0.10826535 0.06875733 -0.074685626 -0.06734735 0.090196356 0.0248803 0.08207059 -0.09923993 0.020886188 0.013206511 0.2715428 -0.055687092 -0.07873504 0.059623703 0.06253246 -0.06911865 0.2274275 -0.072572306 0.10569191 -0.10054194 0.22663541 0.16762477 -0.0014680675 -0.07936597 0.0037958024 0.01516078 0.17024133 -0.07685705 -0.19850355 -0.30272558 0.01797115 -0.08254165 -0.07401652 -0.03940588 -0.0706055 0.08376345 -0.027600657 0.14301832 -0.09480257 -0.24573232 -0.13705795 0.0035838254 0.019852139 0.027858505 0.06513773 0.028915115 -0.045307245 0.06902327 -0.16015966 0.11594497 0.18904193 -0.10429739 0.17797332 0.1507698 0.053943835 -0.13278927 -0.046677306 -0.1366528 0.046558708 -0.010758364 -0.11296339 -0.03306806 0.091481164 -0.04302492 0.04465682 0.12215543 0.09273707 0.005155231 0.14919026 -0.025479643 0.16844946 0.01409904 0.08196834 -0.13315772 -0.07788263 0.08343298 0.083718754 0.0012604636 -0.026478278 -0.16094375 -0.10802257 -0.07796658 0.008311113 -0.21872173 0.11877612 -0.038482793 -0.0041446993 -0.11073396 -0.21173678 -0.1255552 -0.025514342 -0.16145119 -0.016392525 0.10603926 0.029645897 0.15069148 -0.05298647 -0.078654215 0.064327665 0.014376925 -0.049795944 -0.03599721 0.081555486 0.011054349 -0.04933551 0.03915426 0.049864642 0.042951126 0.079195745 0.12185214 -0.09454616
13 0.039658368 0.062453806 -0.1745249 -0.07251009 -0.10493401 0.17270026 0.033404186 -0.13165511 0.18503025 -0.052663967 -0.035303064 -0.09703242 -0.07964334 0.07483216 -0.116218075 0.1379226 0.1131605 0.011808315 0.008618617 -0.005110276 -0.057131212 0.1345578 0.04952342 0.04068804 -0.19107777 0.07627524 -0.018740922 0.2799252 -0.045872413 -0.10696263 -0.058577638 -0.008012991 -0.15872154 0.20945549 -0.08188636 0.0763973 -0.15976621 0.20288895 0.06798458 -0.034900084 -0.083601 -0.02962847 0.055131245 0.15421902 -0.054980997 -0.23832436 -0.3213563 -0.06575105 -0.10006327 -0.060412213 0.045856223 -0.049403798 0.04435576 -0.05033232 0.13840902 -0.05359716 -0.20030813 -0.096947335 0.0032699308 0.014022571 0.042666193 0.071205944 -0.084092356 -0.002817772 0.06718514 -0.24752389 0.112873785 0.10627881 -0.121426985 0.18832417 0.13754167 -0.017593194 -0.18327254 -0.059174076 -0.15611666 0.16491991 -0.0068522436 -0.07123773 -0.04074183 0.043130267 0.02306513 -0.004702271 0.13701636 0.09385637 -0.037124995 0.110339426 -0.048229534 0.17677999 -0.019436074 0.002272159 -0.09311933 -0.09615346 0.082458176 0.0757223 0.09018101 -0.06462907 -0.12966645 -0.13227585 -0.07845329 0.04584817 -0.1970927 0.038251724 -0.041340616 -0.0067412807 -0.10964709 -0.23087981 -0.13380255 -0.0996797 -0.07941524 -0.1398876 0.10442752 0.040271245 0.15502799 -0.16357768 -0.1437483 0.04722257 0.03867638 -0.09974405 -0.08687848 0.07523135 0.014269527 -0.010690266 0.030577803 -0.04315538 0.003825376 0.0008892731 0.12969884 -0.16235398
12 0.032445345 0.063194394 -0.17434616 -0.06382057 -0.09593034 0.16169965 0.030641316 -0.12784728 0.18272558 -0.041928176 -0.028607165 -0.09384822 -0.07069212 0.07544259 -0.11777419 0.13809487 0.103299625 0.015688844 0.003493885 -0.000631838 -0.051603254 0.1283396 0.04865501 0.036019016 -0.18433018 0.072412856 -0.016671976 0.26034832 -0.041274447 -0.10512688 -0.057552613 -0.011691829 -0.15603338 0.19298574 -0.08110972 0.07590193 -0.15233667 0.19223268 0.057207603 -0.04112381 -0.07864715 -0.030400887 0.053589582 0.15157364 -0.05204659 -0.219904 -0.30007023 -0.06747109 -0.094782725 -0.057506707 0.053251393 -0.045503914 0.041047685 -0.049147848 0.12954979 -0.04114837 -0.19435665 -0.08398408 0.009480353 0.01739844 0.037456937 0.06156469 -0.077058434 -0.002289363 0.058966953 -0.24065982 0.10306346 0.10578964 -0.118564986 0.18401814 0.13047644 -0.017957434 -0.18320861 -0.05373022 -0.14932598 0.15247032 -0.0050618695 -0.06841031 -0.037599638 0.04145414 0.018689899 -0.0069987127 0.13093834 0.09048983 -0.04313392 0.10651617 -0.050011437 0.17288178 -0.022544129 0.0053966856 -0.09498389 -0.09137425 0.07970713 0.07843976 0.09181937 -0.05912498 -0.11491487 -0.12702917 -0.067533046 0.046575457 -0.18597582 0.033667643 -0.03449831 -0.006181689 -0.09518681 -0.21103407 -0.13167588 -0.098307416 -0.075396396 -0.13500443 0.09755068 0.034792397 0.14494242 -0.15358639 -0.14118776 0.03883508 0.03408447 -0.09251043 -0.0748985 0.06884685 0.013646475 -0.0053593954 0.02615738 -0.04079911 0.011687415 -0.007914219 0.11771467 -0.15808776
